FANN_FLO_2.1
num_layers=5
learning_rate=0.700000
connection_rate=1.000000
network_type=0
learning_momentum=0.000000
training_algorithm=2
train_error_function=1
train_stop_function=0
cascade_output_change_fraction=0.010000
quickprop_decay=-0.000100
quickprop_mu=1.750000
rprop_increase_factor=1.200000
rprop_decrease_factor=0.500000
rprop_delta_min=0.000000
rprop_delta_max=50.000000
rprop_delta_zero=0.100000
cascade_output_stagnation_epochs=12
cascade_candidate_change_fraction=0.010000
cascade_candidate_stagnation_epochs=12
cascade_max_out_epochs=150
cascade_min_out_epochs=50
cascade_max_cand_epochs=150
cascade_min_cand_epochs=50
cascade_num_candidate_groups=2
bit_fail_limit=3.49999994039535522461e-01
cascade_candidate_limit=1.00000000000000000000e+03
cascade_weight_multiplier=4.00000005960464477539e-01
cascade_activation_functions_count=10
cascade_activation_functions=3 5 7 8 10 11 14 15 16 17 
cascade_activation_steepnesses_count=4
cascade_activation_steepnesses=2.50000000000000000000e-01 5.00000000000000000000e-01 7.50000000000000000000e-01 1.00000000000000000000e+00 
layer_sizes=2 10 10 10 3 
scale_included=0
neurons (num_inputs, activation_function, activation_steepness)=(0, 0, 0.00000000000000000000e+00) (0, 0, 0.00000000000000000000e+00) (2, 4, 5.00000000000000000000e-01) (2, 4, 5.00000000000000000000e-01) (2, 4, 5.00000000000000000000e-01) (2, 4, 5.00000000000000000000e-01) (2, 4, 5.00000000000000000000e-01) (2, 4, 5.00000000000000000000e-01) (2, 4, 5.00000000000000000000e-01) (2, 4, 5.00000000000000000000e-01) (2, 4, 5.00000000000000000000e-01) (0, 0, 0.00000000000000000000e+00) (10, 4, 5.00000000000000000000e-01) (10, 4, 5.00000000000000000000e-01) (10, 4, 5.00000000000000000000e-01) (10, 4, 5.00000000000000000000e-01) (10, 4, 5.00000000000000000000e-01) (10, 4, 5.00000000000000000000e-01) (10, 4, 5.00000000000000000000e-01) (10, 4, 5.00000000000000000000e-01) (10, 4, 5.00000000000000000000e-01) (0, 0, 0.00000000000000000000e+00) (10, 4, 5.00000000000000000000e-01) (10, 4, 5.00000000000000000000e-01) (10, 4, 5.00000000000000000000e-01) (10, 4, 5.00000000000000000000e-01) (10, 4, 5.00000000000000000000e-01) (10, 4, 5.00000000000000000000e-01) (10, 4, 5.00000000000000000000e-01) (10, 4, 5.00000000000000000000e-01) (10, 4, 5.00000000000000000000e-01) (0, 0, 0.00000000000000000000e+00) (10, 4, 5.00000000000000000000e-01) (10, 4, 5.00000000000000000000e-01) (0, 0, 0.00000000000000000000e+00) 
connections (connected_to_neuron, weight)=(0, 6.55603051185607910156e-01) (1, -1.85170781612396240234e+00) (0, 4.34594035148620605469e-01) (1, -5.34000843763351440430e-02) (0, -6.14036738872528076172e-01) (1, 2.10538220405578613281e+00) (0, 4.43806469440460205078e-01) (1, -2.89050340652465820312e-01) (0, -4.04228061437606811523e-01) (1, 6.71460390090942382812e-01) (0, -5.94817280769348144531e-01) (1, 9.46819305419921875000e-01) (0, 3.94497364759445190430e-01) (1, 2.24747389554977416992e-01) (0, -5.56320548057556152344e-01) (1, 9.40080165863037109375e-01) (0, 4.94267463684082031250e-01) (1, -1.91324710845947265625e-01) (2, 7.70521759986877441406e-01) (3, 3.13116699457168579102e-01) (4, 3.42924386262893676758e-01) (5, 4.25760418176651000977e-01) (6, 3.46225112676620483398e-01) (7, -2.41177290678024291992e-01) (8, 3.07312279939651489258e-01) (9, -1.10297672450542449951e-01) (10, 3.99596422910690307617e-01) (11, 1.07595566660165786743e-02) (2, 9.26064014434814453125e-01) (3, 1.11673963069915771484e+00) (4, 8.16727161407470703125e+00) (5, 9.63451385498046875000e-01) (6, 1.85604801177978515625e+01) (7, 1.73729476928710937500e+01) (8, 9.52473521232604980469e-01) (9, 1.73273105621337890625e+01) (10, 9.34108376502990722656e-01) (11, 6.90774798393249511719e-01) (2, -9.50120162963867187500e+00) (3, -1.80304646492004394531e-01) (4, 5.56172323226928710938e+00) (5, -2.35224217176437377930e-01) (6, 9.10283374786376953125e+00) (7, 1.23551120758056640625e+01) (8, 4.83878962695598602295e-02) (9, 1.23490333557128906250e+01) (10, -2.09071278572082519531e-01) (11, 1.10768660902976989746e-01) (2, 2.69839763641357421875e-01) (3, 8.92692565917968750000e-01) (4, 2.82825922966003417969e+00) (5, 9.45102334022521972656e-01) (6, 1.95817124843597412109e+00) (7, 2.48208045959472656250e+00) (8, 5.52363872528076171875e-01) (9, 2.50521016120910644531e+00) (10, 4.45138245820999145508e-01) (11, 2.88576674461364746094e+00) (2, 1.17832505702972412109e+00) (3, 5.91194868087768554688e-01) (4, 5.79827666282653808594e-01) (5, 7.33894765377044677734e-01) (6, 7.11299657821655273438e-01) (7, 6.78636804223060607910e-02) (8, 4.61765259504318237305e-01) (9, -8.70337486267089843750e-02) (10, 3.93444299697875976562e-01) (11, 2.33354970812797546387e-01) (2, 8.90398845076560974121e-02) (3, 1.98423349857330322266e+00) (4, 7.46519470214843750000e+00) (5, 1.82462251186370849609e+00) (6, 6.78867721557617187500e+00) (7, 1.54808750152587890625e+01) (8, 1.39451694488525390625e+00) (9, 1.55157890319824218750e+01) (10, 1.38686263561248779297e+00) (11, 1.10719156265258789062e+00) (2, -3.88877183198928833008e-01) (3, 5.75052984058856964111e-02) (4, 1.35763287544250488281e+00) (5, 1.09285883605480194092e-01) (6, 1.23489153385162353516e+00) (7, 2.52339601516723632812e+00) (8, 1.85098290443420410156e-01) (9, 2.56098031997680664062e+00) (10, 7.05373436212539672852e-02) (11, 4.83588308095932006836e-01) (2, 1.91854965686798095703e+00) (3, 4.97690439224243164062e-01) (4, -2.80252075195312500000e+00) (5, 5.20028948783874511719e-01) (6, -2.75913047790527343750e+00) (7, -1.47107899188995361328e+00) (8, 4.57617938518524169922e-01) (9, -8.27218055725097656250e+00) (10, 5.88614821434020996094e-01) (11, 2.42733210325241088867e-01) (2, -6.39348149299621582031e-01) (3, -2.83441096544265747070e-01) (4, 2.79223680496215820312e+00) (5, -2.07946509122848510742e-01) (6, 6.25347995758056640625e+00) (7, 2.71107959747314453125e+00) (8, -1.67688533663749694824e-01) (9, 5.90769624710083007812e+00) (10, -2.45064347982406616211e-01) (11, 2.19514191150665283203e-01) (12, -9.31351304054260253906e-01) (13, -1.02151012420654296875e+00) (14, -4.98996543884277343750e+00) (15, -1.10163938999176025391e+00) (16, -1.05487120151519775391e+00) (17, -1.02225756645202636719e+00) (18, -1.08180451393127441406e+00) (19, 1.29783332347869873047e+00) (20, -1.67892754077911376953e+00) (21, -9.66787815093994140625e-01) (12, 8.16317051649093627930e-02) (13, -2.68219262361526489258e-01) (14, -6.02076411247253417969e-01) (15, -1.74309164285659790039e-01) (16, 3.95723693072795867920e-02) (17, -3.59649509191513061523e-01) (18, -3.88844907283782958984e-01) (19, 8.74071884155273437500e+00) (20, -4.37357664108276367188e-01) (21, -2.47519999742507934570e-01) (12, -9.60509061813354492188e-01) (13, -8.26651692390441894531e-01) (14, -1.72834312915802001953e+00) (15, -9.18915152549743652344e-01) (16, -1.40326201915740966797e+00) (17, -8.62188100814819335938e-01) (18, -1.98149001598358154297e+00) (19, 2.70051896572113037109e-01) (20, -3.54027128219604492188e+00) (21, -7.24964022636413574219e-01) (12, -9.75469589233398437500e-01) (13, -1.15749013423919677734e+00) (14, -2.62028813362121582031e+00) (15, -1.03601384162902832031e+00) (16, -9.76799488067626953125e-01) (17, -1.11086225509643554688e+00) (18, -1.54116261005401611328e+00) (19, 6.05353474617004394531e-01) (20, -2.33659958839416503906e+00) (21, -1.02298998832702636719e+00) (12, -9.14916157722473144531e-01) (13, 8.64214375615119934082e-02) (14, 1.34358501434326171875e+00) (15, 7.30629637837409973145e-02) (16, -3.90600502490997314453e-01) (17, -4.07826662063598632812e-01) (18, -3.12454581260681152344e-01) (19, -3.33486437797546386719e+00) (20, 4.95021007955074310303e-02) (21, -2.55529522895812988281e-01) (12, 1.95045202970504760742e-01) (13, 1.88505500555038452148e-02) (14, -6.90537333488464355469e-01) (15, 1.62640720605850219727e-01) (16, 1.89723521471023559570e-01) (17, -4.17460024356842041016e-01) (18, -1.69226735830307006836e-01) (19, 3.67954349517822265625e+00) (20, -6.03963732719421386719e-01) (21, -4.58855152130126953125e-01) (12, 2.39574275910854339600e-02) (13, -1.28641933202743530273e-01) (14, -1.69831025600433349609e+00) (15, -3.10211926698684692383e-01) (16, 5.43000064790248870850e-02) (17, -1.64238303899765014648e-01) (18, -7.26624846458435058594e-01) (19, 7.40667247772216796875e+00) (20, -1.11751031875610351562e+00) (21, -8.30138772726058959961e-02) (12, 1.07987701892852783203e+00) (13, -3.26270252466201782227e-01) (14, -3.43118906021118164062e+00) (15, 4.00470122694969177246e-02) (16, 1.14369082450866699219e+00) (17, -2.06213489174842834473e-01) (18, -9.16467607021331787109e-03) (19, 8.79467391967773437500e+00) (20, -3.58982861042022705078e-01) (21, -7.28114366531372070312e-01) (12, -2.30237662792205810547e-01) (13, -4.85647737979888916016e-01) (14, 3.57319426536560058594e+00) (15, -4.34426069259643554688e-01) (16, -1.54295653104782104492e-01) (17, -3.30220103263854980469e-01) (18, 9.72324833273887634277e-02) (19, -1.80620276927947998047e+00) (20, 1.53287261724472045898e-01) (21, -4.24633622169494628906e-01) (22, 1.04802169799804687500e+02) (23, -4.02964442968368530273e-01) (24, 1.15430038452148437500e+02) (25, 1.27402160644531250000e+02) (26, 2.64196052551269531250e+01) (27, -1.18943318724632263184e-01) (28, -6.73752307891845703125e+00) (29, -9.35277402400970458984e-01) (30, 1.15637912750244140625e+01) (31, 1.15581482648849487305e-01) (22, 3.01818298339843750000e+02) (23, 6.36132955551147460938e-02) (24, 3.04377471923828125000e+02) (25, 3.04387512207031250000e+02) (26, -1.47791662216186523438e+01) (27, 2.22856104373931884766e-02) (28, 2.15361537933349609375e+01) (29, 1.10826861858367919922e+00) (30, -6.33982801437377929688e+00) (31, -1.90798923373222351074e-01) 
