FANN_FLO_2.1
num_layers=5
learning_rate=0.700000
connection_rate=1.000000
network_type=0
learning_momentum=0.000000
training_algorithm=2
train_error_function=1
train_stop_function=0
cascade_output_change_fraction=0.010000
quickprop_decay=-0.000100
quickprop_mu=1.750000
rprop_increase_factor=1.200000
rprop_decrease_factor=0.500000
rprop_delta_min=0.000000
rprop_delta_max=50.000000
rprop_delta_zero=0.100000
cascade_output_stagnation_epochs=12
cascade_candidate_change_fraction=0.010000
cascade_candidate_stagnation_epochs=12
cascade_max_out_epochs=150
cascade_min_out_epochs=50
cascade_max_cand_epochs=150
cascade_min_cand_epochs=50
cascade_num_candidate_groups=2
bit_fail_limit=3.49999994039535522461e-01
cascade_candidate_limit=1.00000000000000000000e+03
cascade_weight_multiplier=4.00000005960464477539e-01
cascade_activation_functions_count=10
cascade_activation_functions=3 5 7 8 10 11 14 15 16 17 
cascade_activation_steepnesses_count=4
cascade_activation_steepnesses=2.50000000000000000000e-01 5.00000000000000000000e-01 7.50000000000000000000e-01 1.00000000000000000000e+00 
layer_sizes=3 10 10 10 3 
scale_included=0
neurons (num_inputs, activation_function, activation_steepness)=(0, 0, 0.00000000000000000000e+00) (0, 0, 0.00000000000000000000e+00) (0, 0, 0.00000000000000000000e+00) (3, 4, 5.00000000000000000000e-01) (3, 4, 5.00000000000000000000e-01) (3, 4, 5.00000000000000000000e-01) (3, 4, 5.00000000000000000000e-01) (3, 4, 5.00000000000000000000e-01) (3, 4, 5.00000000000000000000e-01) (3, 4, 5.00000000000000000000e-01) (3, 4, 5.00000000000000000000e-01) (3, 4, 5.00000000000000000000e-01) (0, 0, 0.00000000000000000000e+00) (10, 4, 5.00000000000000000000e-01) (10, 4, 5.00000000000000000000e-01) (10, 4, 5.00000000000000000000e-01) (10, 4, 5.00000000000000000000e-01) (10, 4, 5.00000000000000000000e-01) (10, 4, 5.00000000000000000000e-01) (10, 4, 5.00000000000000000000e-01) (10, 4, 5.00000000000000000000e-01) (10, 4, 5.00000000000000000000e-01) (0, 0, 0.00000000000000000000e+00) (10, 4, 5.00000000000000000000e-01) (10, 4, 5.00000000000000000000e-01) (10, 4, 5.00000000000000000000e-01) (10, 4, 5.00000000000000000000e-01) (10, 4, 5.00000000000000000000e-01) (10, 4, 5.00000000000000000000e-01) (10, 4, 5.00000000000000000000e-01) (10, 4, 5.00000000000000000000e-01) (10, 4, 5.00000000000000000000e-01) (0, 0, 0.00000000000000000000e+00) (10, 4, 5.00000000000000000000e-01) (10, 4, 5.00000000000000000000e-01) (0, 0, 0.00000000000000000000e+00) 
connections (connected_to_neuron, weight)=(0, 6.00725188851356506348e-02) (1, 3.87901589274406433105e-02) (2, -5.38823455572128295898e-02) (0, -5.73590397834777832031e-04) (1, -4.03737388551235198975e-02) (2, 3.86294499039649963379e-02) (0, 4.50607463717460632324e-02) (1, -6.40158131718635559082e-02) (2, 8.62564817070960998535e-02) (0, -8.73903185129165649414e-02) (1, 3.08902338147163391113e-02) (2, -2.76952460408210754395e-02) (0, -7.40074664354324340820e-02) (1, -4.35241758823394775391e-02) (2, 8.91372635960578918457e-02) (0, -7.01438784599304199219e-02) (1, 9.19038280844688415527e-02) (2, 2.76651605963706970215e-02) (0, -3.16229462623596191406e-02) (1, -8.68166014552116394043e-02) (2, 7.34170153737068176270e-02) (0, -8.02791714668273925781e-02) (1, -5.20440824329853057861e-02) (2, 9.51429232954978942871e-02) (0, 6.71477988362312316895e-02) (1, -4.70813922584056854248e-02) (2, -9.70124900341033935547e-02) (3, -8.89559835195541381836e-02) (4, -8.31742286682128906250e-02) (5, 9.07232537865638732910e-02) (6, -1.42987221479415893555e-02) (7, 8.13086703419685363770e-02) (8, -4.53811958432197570801e-02) (9, 7.82653763890266418457e-02) (10, 6.06653839349746704102e-03) (11, -3.97416129708290100098e-02) (12, 6.27660527825355529785e-02) (3, -9.09057855606079101562e-02) (4, -5.34846298396587371826e-02) (5, 8.38798657059669494629e-02) (6, -3.10549437999725341797e-02) (7, 5.95632269978523254395e-02) (8, 7.91057422757148742676e-02) (9, -6.96989521384239196777e-02) (10, -3.02476584911346435547e-02) (11, 2.76418551802635192871e-02) (12, -2.33937650918960571289e-02) (3, 2.08920836448669433594e-02) (4, -6.66803643107414245605e-02) (5, -9.68529731035232543945e-02) (6, -7.86101073026657104492e-03) (7, 7.99855515360832214355e-02) (8, -8.28417539596557617188e-02) (9, 7.86945596337318420410e-02) (10, 1.93634182214736938477e-02) (11, 4.09975871443748474121e-02) (12, 4.65312078595161437988e-02) (3, 4.98535558581352233887e-02) (4, 8.85986462235450744629e-02) (5, 7.75142982602119445801e-02) (6, -1.72159224748611450195e-02) (7, 5.19274398684501647949e-02) (8, -5.55717274546623229980e-02) (9, 5.99267333745956420898e-03) (10, -8.11963006854057312012e-02) (11, -6.62630349397659301758e-02) (12, -8.28968435525894165039e-02) (3, -4.72009293735027313232e-02) (4, 9.39522609114646911621e-02) (5, 5.55974319577217102051e-02) (6, 2.61340513825416564941e-02) (7, 3.49384024739265441895e-02) (8, 9.64377820491790771484e-03) (9, 8.30108895897865295410e-02) (10, -3.59991416335105895996e-02) (11, -3.76465022563934326172e-02) (12, 7.52511546015739440918e-02) (3, -5.38839362561702728271e-02) (4, -2.73272544145584106445e-02) (5, -8.91487225890159606934e-02) (6, 7.73960426449775695801e-02) (7, -4.55021858215332031250e-03) (8, -7.55401849746704101562e-02) (9, -3.82606685161590576172e-03) (10, 9.52936187386512756348e-02) (11, -2.57894396781921386719e-04) (12, 6.54710456728935241699e-02) (3, -2.82029509544372558594e-02) (4, -7.02586770057678222656e-03) (5, -8.37890207767486572266e-02) (6, -4.20830249786376953125e-02) (7, -8.93988013267517089844e-02) (8, 7.44119361042976379395e-02) (9, 4.12361696362495422363e-02) (10, 5.61288669705390930176e-02) (11, -4.20627295970916748047e-02) (12, 5.16602918505668640137e-02) (3, 5.44511899352073669434e-02) (4, -3.89121584594249725342e-02) (5, 3.30785661935806274414e-03) (6, -4.83734160661697387695e-03) (7, 9.88739207386970520020e-02) (8, -2.58544981479644775391e-02) (9, 6.34924694895744323730e-02) (10, -8.20593163371086120605e-02) (11, 2.91205570101737976074e-02) (12, 2.91072055697441101074e-02) (3, 4.69075143337249755859e-03) (4, 3.75384166836738586426e-02) (5, -9.17123258113861083984e-02) (6, -9.05515253543853759766e-03) (7, 1.00723952054977416992e-02) (8, 8.67799594998359680176e-02) (9, -8.93632322549819946289e-02) (10, 7.21994116902351379395e-02) (11, 5.53398802876472473145e-02) (12, 9.73645076155662536621e-02) (13, 5.39374351501464843750e-03) (14, 5.25745227932929992676e-02) (15, 1.98539495468139648438e-02) (16, 8.53278413414955139160e-02) (17, -9.49800834059715270996e-02) (18, 6.97961524128913879395e-02) (19, 6.38973787426948547363e-02) (20, -7.69733265042304992676e-02) (21, -9.07093361020088195801e-02) (22, 4.82351705431938171387e-02) (13, 8.84091779589653015137e-02) (14, 9.29458662867546081543e-02) (15, -5.89020736515522003174e-02) (16, 3.28735038638114929199e-02) (17, -9.50116962194442749023e-02) (18, -6.15517124533653259277e-02) (19, -9.96152535080909729004e-02) (20, -3.35077941417694091797e-02) (21, 3.45341190695762634277e-02) (22, 1.49527788162231445312e-02) (13, -8.86690169572830200195e-02) (14, -6.01381734013557434082e-02) (15, 5.77403083443641662598e-02) (16, 4.12884429097175598145e-02) (17, -6.51029050350189208984e-02) (18, 1.54033452272415161133e-02) (19, 8.40523168444633483887e-02) (20, 6.72139599919319152832e-02) (21, 6.48061856627464294434e-02) (22, -2.37366557121276855469e-03) (13, -9.41949263215065002441e-02) (14, 6.58780559897422790527e-02) (15, 1.24820619821548461914e-02) (16, -1.40726119279861450195e-02) (17, 8.17074850201606750488e-02) (18, 5.76254650950431823730e-02) (19, -8.89352709054946899414e-02) (20, 6.49771168828010559082e-02) (21, 7.03061297535896301270e-02) (22, 3.50959375500679016113e-02) (13, 5.72372004389762878418e-02) (14, -1.44852548837661743164e-02) (15, -5.37063367664813995361e-02) (16, -4.24079373478889465332e-02) (17, 4.98694404959678649902e-02) (18, -4.41981442272663116455e-02) (19, -3.82455959916114807129e-02) (20, 6.33126497268676757812e-03) (21, 9.54148918390274047852e-03) (22, -3.62123399972915649414e-02) (13, -2.08432227373123168945e-02) (14, 8.78637209534645080566e-02) (15, -7.44185522198677062988e-02) (16, 4.74133864045143127441e-02) (17, 7.68365338444709777832e-02) (18, -8.21933150291442871094e-03) (19, 5.77227547764778137207e-02) (20, -5.35981915891170501709e-02) (21, -2.48072370886802673340e-02) (22, 6.47104904055595397949e-02) (13, -1.08083784580230712891e-02) (14, -5.64176104962825775146e-02) (15, -1.07917934656143188477e-02) (16, 2.23498344421386718750e-02) (17, 3.36840823292732238770e-02) (18, -7.16788992285728454590e-02) (19, 9.27330628037452697754e-02) (20, -3.54495197534561157227e-02) (21, -9.11951065063476562500e-06) (22, 4.67354282736778259277e-02) (13, 8.23410227894783020020e-02) (14, -9.45850759744644165039e-02) (15, -9.13984701037406921387e-02) (16, 6.59130290150642395020e-02) (17, 3.58223915100097656250e-04) (18, 2.05762162804603576660e-02) (19, 2.43631005287170410156e-02) (20, 7.05548599362373352051e-02) (21, 1.55495032668113708496e-02) (22, -5.95336928963661193848e-02) (13, 1.72441601753234863281e-02) (14, 2.25305408239364624023e-02) (15, 7.09023252129554748535e-02) (16, 5.54547533392906188965e-02) (17, 2.81438902020454406738e-02) (18, 1.44966691732406616211e-02) (19, 4.56496104598045349121e-02) (20, 3.29697057604789733887e-02) (21, -7.82215520739555358887e-02) (22, -6.95864036679267883301e-02) (23, 6.12965747714042663574e-02) (24, 1.15052685141563415527e-02) (25, -3.09199020266532897949e-02) (26, -7.08335191011428833008e-02) (27, -9.89443510770797729492e-02) (28, 4.23477962613105773926e-02) (29, -6.04305975139141082764e-02) (30, -5.70051483809947967529e-02) (31, -8.55300724506378173828e-02) (32, 9.61444452404975891113e-02) (23, 9.95690301060676574707e-02) (24, 5.67797794938087463379e-02) (25, 9.76816043257713317871e-02) (26, -6.51540309190750122070e-02) (27, -4.36737313866615295410e-02) (28, -2.43387967348098754883e-02) (29, -6.21874369680881500244e-02) (30, 1.57753452658653259277e-02) (31, -6.37226849794387817383e-02) (32, 1.27993971109390258789e-02) 
